<?xml version="1.0"?>
<opencv_storage>
<cascade>
  <stageType>BOOST</stageType>
  <featureType>HAAR</featureType>
  <height>20</height>
  <width>20</width>
  <stageParams>
    <boostType>GAB</boostType>
    <minHitRate>9.9500000476837158e-01</minHitRate>
    <maxFalseAlarm>5.0000000000000000e-01</maxFalseAlarm>
    <weightTrimRate>9.4999998807907104e-01</weightTrimRate>
    <maxDepth>1</maxDepth>
    <maxWeakCount>100</maxWeakCount></stageParams>
  <featureParams>
    <maxCatCount>0</maxCatCount>
    <featSize>1</featSize>
    <mode>BASIC</mode></featureParams>
  <stageNum>3</stageNum>
  <stages>
    <!-- stage 0 -->
    <_>
      <maxWeakCount>3</maxWeakCount>
      <stageThreshold>-1.0685827732086182e+00</stageThreshold>
      <weakClassifiers>
        <_>
          <internalNodes>
            0 -1 8 -2.3781340569257736e-02</internalNodes>
          <leafValues>
            7.5438594818115234e-01 -8.4447902441024780e-01</leafValues></_>
        <_>
          <internalNodes>
            0 -1 0 -2.2148076444864273e-02</internalNodes>
          <leafValues>
            7.8631001710891724e-01 -7.3560935258865356e-01</leafValues></_>
        <_>
          <internalNodes>
            0 -1 2 3.5864580422639847e-03</internalNodes>
          <leafValues>
            -8.0000627040863037e-01 5.1150554418563843e-01</leafValues></_></weakClassifiers></_>
    <!-- stage 1 -->
    <_>
      <maxWeakCount>3</maxWeakCount>
      <stageThreshold>-1.0044801235198975e+00</stageThreshold>
      <weakClassifiers>
        <_>
          <internalNodes>
            0 -1 5 -1.1623289436101913e-02</internalNodes>
          <leafValues>
            6.0000002384185791e-01 -8.2635658979415894e-01</leafValues></_>
        <_>
          <internalNodes>
            0 -1 9 -1.4560103416442871e-02</internalNodes>
          <leafValues>
            7.2303193807601929e-01 -6.0680305957794189e-01</leafValues></_>
        <_>
          <internalNodes>
            0 -1 4 -3.2991204410791397e-02</internalNodes>
          <leafValues>
            4.3770235776901245e-01 -9.0115541219711304e-01</leafValues></_></weakClassifiers></_>
    <!-- stage 2 -->
    <_>
      <maxWeakCount>4</maxWeakCount>
      <stageThreshold>-1.6301603317260742e+00</stageThreshold>
      <weakClassifiers>
        <_>
          <internalNodes>
            0 -1 6 1.4538662508130074e-02</internalNodes>
          <leafValues>
            -8.2262998819351196e-01 8.2608693838119507e-01</leafValues></_>
        <_>
          <internalNodes>
            0 -1 3 -3.7649646401405334e-03</internalNodes>
          <leafValues>
            5.5004656314849854e-01 -7.9603350162506104e-01</leafValues></_>
        <_>
          <internalNodes>
            0 -1 1 1.8649977445602417e-01</internalNodes>
          <leafValues>
            -5.4435485601425171e-01 7.5189548730850220e-01</leafValues></_>
        <_>
          <internalNodes>
            0 -1 7 -7.6682986691594124e-03</internalNodes>
          <leafValues>
            5.3285795450210571e-01 -7.8090620040893555e-01</leafValues></_></weakClassifiers></_></stages>
  <features>
    <_>
      <rects>
        <_>
          0 8 6 5 -1.</_>
        <_>
          2 8 2 5 3.</_></rects>
      <tilted>0</tilted></_>
    <_>
      <rects>
        <_>
          0 11 18 9 -1.</_>
        <_>
          0 14 18 3 3.</_></rects>
      <tilted>0</tilted></_>
    <_>
      <rects>
        <_>
          4 0 1 9 -1.</_>
        <_>
          4 3 1 3 3.</_></rects>
      <tilted>0</tilted></_>
    <_>
      <rects>
        <_>
          6 8 3 3 -1.</_>
        <_>
          7 8 1 3 3.</_></rects>
      <tilted>0</tilted></_>
    <_>
      <rects>
        <_>
          7 3 11 10 -1.</_>
        <_>
          7 8 11 5 2.</_></rects>
      <tilted>0</tilted></_>
    <_>
      <rects>
        <_>
          8 8 2 5 -1.</_>
        <_>
          9 8 1 5 2.</_></rects>
      <tilted>0</tilted></_>
    <_>
      <rects>
        <_>
          10 8 3 6 -1.</_>
        <_>
          11 8 1 6 3.</_></rects>
      <tilted>0</tilted></_>
    <_>
      <rects>
        <_>
          11 6 6 7 -1.</_>
        <_>
          14 6 3 7 2.</_></rects>
      <tilted>0</tilted></_>
    <_>
      <rects>
        <_>
          18 0 2 19 -1.</_>
        <_>
          19 0 1 19 2.</_></rects>
      <tilted>0</tilted></_>
    <_>
      <rects>
        <_>
          18 4 2 9 -1.</_>
        <_>
          19 4 1 9 2.</_></rects>
      <tilted>0</tilted></_></features></cascade>
</opencv_storage>
