<?xml version="1.0"?>
<opencv_storage>
<cascade>
  <stageType>BOOST</stageType>
  <featureType>HAAR</featureType>
  <height>20</height>
  <width>40</width>
  <stageParams>
    <boostType>GAB</boostType>
    <minHitRate>9.9500000476837158e-01</minHitRate>
    <maxFalseAlarm>5.0000000000000000e-01</maxFalseAlarm>
    <weightTrimRate>9.4999998807907104e-01</weightTrimRate>
    <maxDepth>1</maxDepth>
    <maxWeakCount>100</maxWeakCount></stageParams>
  <featureParams>
    <maxCatCount>0</maxCatCount>
    <featSize>1</featSize>
    <mode>BASIC</mode></featureParams>
  <stageNum>3</stageNum>
  <stages>
    <!-- stage 0 -->
    <_>
      <maxWeakCount>8</maxWeakCount>
      <stageThreshold>-1.4654140472412109e+00</stageThreshold>
      <weakClassifiers>
        <_>
          <internalNodes>
            0 -1 2 9.4154477119445801e-02</internalNodes>
          <leafValues>
            -6.9005101919174194e-01 4.1536748409271240e-01</leafValues></_>
        <_>
          <internalNodes>
            0 -1 1 -4.1936103254556656e-02</internalNodes>
          <leafValues>
            6.5947163105010986e-01 -4.0601593255996704e-01</leafValues></_>
        <_>
          <internalNodes>
            0 -1 21 4.1126143187284470e-03</internalNodes>
          <leafValues>
            -2.3670847713947296e-01 7.9514604806900024e-01</leafValues></_>
        <_>
          <internalNodes>
            0 -1 20 3.3147423528134823e-03</internalNodes>
          <leafValues>
            -2.4690985679626465e-01 7.7029436826705933e-01</leafValues></_>
        <_>
          <internalNodes>
            0 -1 23 5.4842028766870499e-03</internalNodes>
          <leafValues>
            -2.4558821320533752e-01 8.4194552898406982e-01</leafValues></_>
        <_>
          <internalNodes>
            0 -1 25 3.0469105113297701e-03</internalNodes>
          <leafValues>
            -2.0637148618698120e-01 8.0645817518234253e-01</leafValues></_>
        <_>
          <internalNodes>
            0 -1 17 6.1340397223830223e-03</internalNodes>
          <leafValues>
            -1.5570257604122162e-01 8.4857916831970215e-01</leafValues></_>
        <_>
          <internalNodes>
            0 -1 16 -4.1917492635548115e-03</internalNodes>
          <leafValues>
            7.2193348407745361e-01 -2.7015107870101929e-01</leafValues></_></weakClassifiers></_>
    <!-- stage 1 -->
    <_>
      <maxWeakCount>12</maxWeakCount>
      <stageThreshold>-1.9031717777252197e+00</stageThreshold>
      <weakClassifiers>
        <_>
          <internalNodes>
            0 -1 5 7.4481628835201263e-03</internalNodes>
          <leafValues>
            -5.5035781860351563e-01 8.4695202112197876e-01</leafValues></_>
        <_>
          <internalNodes>
            0 -1 4 4.3395655229687691e-03</internalNodes>
          <leafValues>
            -3.3148238062858582e-01 7.9102051258087158e-01</leafValues></_>
        <_>
          <internalNodes>
            0 -1 3 3.6935470998287201e-03</internalNodes>
          <leafValues>
            -2.9789137840270996e-01 7.8742945194244385e-01</leafValues></_>
        <_>
          <internalNodes>
            0 -1 6 2.0636992994695902e-03</internalNodes>
          <leafValues>
            -2.3093190789222717e-01 8.0166959762573242e-01</leafValues></_>
        <_>
          <internalNodes>
            0 -1 28 -2.3403666913509369e-02</internalNodes>
          <leafValues>
            8.1197971105575562e-01 -1.6041541099548340e-01</leafValues></_>
        <_>
          <internalNodes>
            0 -1 8 3.9472593925893307e-03</internalNodes>
          <leafValues>
            -1.8170692026615143e-01 8.1987965106964111e-01</leafValues></_>
        <_>
          <internalNodes>
            0 -1 10 1.7732072155922651e-03</internalNodes>
          <leafValues>
            -1.7865797877311707e-01 7.5644510984420776e-01</leafValues></_>
        <_>
          <internalNodes>
            0 -1 27 -5.4314532317221165e-03</internalNodes>
          <leafValues>
            7.9991102218627930e-01 -1.5672254562377930e-01</leafValues></_>
        <_>
          <internalNodes>
            0 -1 27 3.7762462161481380e-03</internalNodes>
          <leafValues>
            -1.9025111198425293e-01 7.2712057828903198e-01</leafValues></_>
        <_>
          <internalNodes>
            0 -1 7 4.7942958772182465e-02</internalNodes>
          <leafValues>
            2.4557657539844513e-01 -6.8007808923721313e-01</leafValues></_>
        <_>
          <internalNodes>
            0 -1 13 -2.5651440024375916e-02</internalNodes>
          <leafValues>
            -6.1248809099197388e-01 2.4352738261222839e-01</leafValues></_>
        <_>
          <internalNodes>
            0 -1 19 2.8483434580266476e-03</internalNodes>
          <leafValues>
            -2.0426325500011444e-01 7.4215722084045410e-01</leafValues></_></weakClassifiers></_>
    <!-- stage 2 -->
    <_>
      <maxWeakCount>11</maxWeakCount>
      <stageThreshold>-1.5806012153625488e+00</stageThreshold>
      <weakClassifiers>
        <_>
          <internalNodes>
            0 -1 0 6.6467180848121643e-02</internalNodes>
          <leafValues>
            -6.1753767728805542e-01 4.7088426351547241e-01</leafValues></_>
        <_>
          <internalNodes>
            0 -1 26 1.8075679690809920e-05</internalNodes>
          <leafValues>
            -4.6798121929168701e-01 3.6521852016448975e-01</leafValues></_>
        <_>
          <internalNodes>
            0 -1 14 4.5374073088169098e-03</internalNodes>
          <leafValues>
            -2.1100300550460815e-01 7.5711023807525635e-01</leafValues></_>
        <_>
          <internalNodes>
            0 -1 15 -2.1508531644940376e-03</internalNodes>
          <leafValues>
            7.4036973714828491e-01 -2.4373497068881989e-01</leafValues></_>
        <_>
          <internalNodes>
            0 -1 18 -5.9901643544435501e-03</internalNodes>
          <leafValues>
            7.7717369794845581e-01 -1.3264329731464386e-01</leafValues></_>
        <_>
          <internalNodes>
            0 -1 11 -5.9577235952019691e-03</internalNodes>
          <leafValues>
            -7.5377953052520752e-01 2.0606637001037598e-01</leafValues></_>
        <_>
          <internalNodes>
            0 -1 12 9.7155098046641797e-06</internalNodes>
          <leafValues>
            -3.6022874712944031e-01 3.8343995809555054e-01</leafValues></_>
        <_>
          <internalNodes>
            0 -1 18 6.0862721875309944e-03</internalNodes>
          <leafValues>
            -1.9424523413181305e-01 7.6536017656326294e-01</leafValues></_>
        <_>
          <internalNodes>
            0 -1 9 6.1388299800455570e-03</internalNodes>
          <leafValues>
            2.2665007412433624e-01 -7.1941852569580078e-01</leafValues></_>
        <_>
          <internalNodes>
            0 -1 24 1.9946610555052757e-03</internalNodes>
          <leafValues>
            -2.3843288421630859e-01 6.4675921201705933e-01</leafValues></_>
        <_>
          <internalNodes>
            0 -1 22 3.6575975827872753e-03</internalNodes>
          <leafValues>
            -1.7831043899059296e-01 7.2557383775711060e-01</leafValues></_></weakClassifiers></_></stages>
  <features>
    <_>
      <rects>
        <_>
          2 13 31 6 -1.</_>
        <_>
          2 15 31 2 3.</_></rects>
      <tilted>0</tilted></_>
    <_>
      <rects>
        <_>
          2 16 36 4 -1.</_>
        <_>
          2 18 36 2 2.</_></rects>
      <tilted>0</tilted></_>
    <_>
      <rects>
        <_>
          3 0 36 9 -1.</_>
        <_>
          3 3 36 3 3.</_></rects>
      <tilted>0</tilted></_>
    <_>
      <rects>
        <_>
          8 7 3 8 -1.</_>
        <_>
          9 7 1 8 3.</_></rects>
      <tilted>0</tilted></_>
    <_>
      <rects>
        <_>
          9 7 3 6 -1.</_>
        <_>
          10 7 1 6 3.</_></rects>
      <tilted>0</tilted></_>
    <_>
      <rects>
        <_>
          10 8 3 6 -1.</_>
        <_>
          11 8 1 6 3.</_></rects>
      <tilted>0</tilted></_>
    <_>
      <rects>
        <_>
          11 10 3 2 -1.</_>
        <_>
          12 10 1 2 3.</_></rects>
      <tilted>0</tilted></_>
    <_>
      <rects>
        <_>
          12 0 16 20 -1.</_>
        <_>
          20 0 8 20 2.</_></rects>
      <tilted>0</tilted></_>
    <_>
      <rects>
        <_>
          12 8 3 5 -1.</_>
        <_>
          13 8 1 5 3.</_></rects>
      <tilted>0</tilted></_>
    <_>
      <rects>
        <_>
          12 17 12 3 -1.</_>
        <_>
          16 17 4 3 3.</_></rects>
      <tilted>0</tilted></_>
    <_>
      <rects>
        <_>
          13 10 3 2 -1.</_>
        <_>
          14 10 1 2 3.</_></rects>
      <tilted>0</tilted></_>
    <_>
      <rects>
        <_>
          13 17 12 3 -1.</_>
        <_>
          17 17 4 3 3.</_></rects>
      <tilted>0</tilted></_>
    <_>
      <rects>
        <_>
          14 4 1 3 -1.</_>
        <_>
          14 5 1 1 3.</_></rects>
      <tilted>0</tilted></_>
    <_>
      <rects>
        <_>
          16 3 18 16 -1.</_>
        <_>
          22 3 6 16 3.</_></rects>
      <tilted>0</tilted></_>
    <_>
      <rects>
        <_>
          16 9 3 4 -1.</_>
        <_>
          17 9 1 4 3.</_></rects>
      <tilted>0</tilted></_>
    <_>
      <rects>
        <_>
          16 10 3 2 -1.</_>
        <_>
          17 10 1 2 3.</_></rects>
      <tilted>0</tilted></_>
    <_>
      <rects>
        <_>
          17 6 3 10 -1.</_>
        <_>
          18 6 1 10 3.</_></rects>
      <tilted>0</tilted></_>
    <_>
      <rects>
        <_>
          17 7 3 7 -1.</_>
        <_>
          18 7 1 7 3.</_></rects>
      <tilted>0</tilted></_>
    <_>
      <rects>
        <_>
          18 9 3 5 -1.</_>
        <_>
          19 9 1 5 3.</_></rects>
      <tilted>0</tilted></_>
    <_>
      <rects>
        <_>
          20 8 3 3 -1.</_>
        <_>
          21 8 1 3 3.</_></rects>
      <tilted>0</tilted></_>
    <_>
      <rects>
        <_>
          21 8 3 5 -1.</_>
        <_>
          22 8 1 5 3.</_></rects>
      <tilted>0</tilted></_>
    <_>
      <rects>
        <_>
          22 7 3 6 -1.</_>
        <_>
          23 7 1 6 3.</_></rects>
      <tilted>0</tilted></_>
    <_>
      <rects>
        <_>
          22 10 3 3 -1.</_>
        <_>
          23 10 1 3 3.</_></rects>
      <tilted>0</tilted></_>
    <_>
      <rects>
        <_>
          23 8 3 7 -1.</_>
        <_>
          24 8 1 7 3.</_></rects>
      <tilted>0</tilted></_>
    <_>
      <rects>
        <_>
          24 8 3 2 -1.</_>
        <_>
          25 8 1 2 3.</_></rects>
      <tilted>0</tilted></_>
    <_>
      <rects>
        <_>
          24 8 3 4 -1.</_>
        <_>
          25 8 1 4 3.</_></rects>
      <tilted>0</tilted></_>
    <_>
      <rects>
        <_>
          32 1 1 2 -1.</_>
        <_>
          32 2 1 1 2.</_></rects>
      <tilted>0</tilted></_>
    <_>
      <rects>
        <_>
          32 7 3 7 -1.</_>
        <_>
          33 7 1 7 3.</_></rects>
      <tilted>0</tilted></_>
    <_>
      <rects>
        <_>
          36 1 4 19 -1.</_>
        <_>
          38 1 2 19 2.</_></rects>
      <tilted>0</tilted></_></features></cascade>
</opencv_storage>
