<?xml version="1.0"?>
<opencv_storage>
<cascade>
  <stageType>BOOST</stageType>
  <featureType>HAAR</featureType>
  <height>10</height>
  <width>45</width>
  <stageParams>
    <boostType>GAB</boostType>
    <minHitRate>9.9500000476837158e-01</minHitRate>
    <maxFalseAlarm>5.0000000000000000e-01</maxFalseAlarm>
    <weightTrimRate>9.4999998807907104e-01</weightTrimRate>
    <maxDepth>1</maxDepth>
    <maxWeakCount>100</maxWeakCount></stageParams>
  <featureParams>
    <maxCatCount>0</maxCatCount>
    <featSize>1</featSize>
    <mode>BASIC</mode></featureParams>
  <stageNum>14</stageNum>
  <stages>
    <!-- stage 0 -->
    <_>
      <maxWeakCount>10</maxWeakCount>
      <stageThreshold>-1.4039139747619629e+00</stageThreshold>
      <weakClassifiers>
        <_>
          <internalNodes>
            0 -1 18 -4.7989010810852051e-02</internalNodes>
          <leafValues>
            6.6173630952835083e-01 -6.4703595638275146e-01</leafValues></_>
        <_>
          <internalNodes>
            0 -1 16 4.2236197739839554e-02</internalNodes>
          <leafValues>
            -4.0284475684165955e-01 6.5501385927200317e-01</leafValues></_>
        <_>
          <internalNodes>
            0 -1 22 -2.0740346610546112e-01</internalNodes>
          <leafValues>
            5.8530062437057495e-01 -3.2463076710700989e-01</leafValues></_>
        <_>
          <internalNodes>
            0 -1 67 2.8025135179632343e-05</internalNodes>
          <leafValues>
            -3.9743396639823914e-01 3.6552172899246216e-01</leafValues></_>
        <_>
          <internalNodes>
            0 -1 63 5.6167952716350555e-03</internalNodes>
          <leafValues>
            -1.8453668057918549e-01 7.9938596487045288e-01</leafValues></_>
        <_>
          <internalNodes>
            0 -1 61 4.4836038723587990e-03</internalNodes>
          <leafValues>
            -1.9347532093524933e-01 6.1230248212814331e-01</leafValues></_>
        <_>
          <internalNodes>
            0 -1 103 -1.7524634022265673e-03</internalNodes>
          <leafValues>
            -8.0737924575805664e-01 1.9753138720989227e-01</leafValues></_>
        <_>
          <internalNodes>
            0 -1 103 1.6513736918568611e-03</internalNodes>
          <leafValues>
            1.8516257405281067e-01 -8.0318981409072876e-01</leafValues></_>
        <_>
          <internalNodes>
            0 -1 70 -5.2974976599216461e-02</internalNodes>
          <leafValues>
            7.3445916175842285e-01 -2.2393220663070679e-01</leafValues></_>
        <_>
          <internalNodes>
            0 -1 123 4.3598259799182415e-03</internalNodes>
          <leafValues>
            -1.5739111602306366e-01 6.8226087093353271e-01</leafValues></_></weakClassifiers></_>
    <!-- stage 1 -->
    <_>
      <maxWeakCount>11</maxWeakCount>
      <stageThreshold>-1.8000276088714600e+00</stageThreshold>
      <weakClassifiers>
        <_>
          <internalNodes>
            0 -1 43 7.7038958668708801e-02</internalNodes>
          <leafValues>
            -5.9562236070632935e-01 6.9595110416412354e-01</leafValues></_>
        <_>
          <internalNodes>
            0 -1 75 3.1788799911737442e-02</internalNodes>
          <leafValues>
            -3.3495974540710449e-01 6.7410659790039063e-01</leafValues></_>
        <_>
          <internalNodes>
            0 -1 99 4.1436208412051201e-03</internalNodes>
          <leafValues>
            -2.1600791811943054e-01 7.6758795976638794e-01</leafValues></_>
        <_>
          <internalNodes>
            0 -1 108 5.0918073393404484e-03</internalNodes>
          <leafValues>
            -2.0357398688793182e-01 7.9053109884262085e-01</leafValues></_>
        <_>
          <internalNodes>
            0 -1 92 5.3405193611979485e-03</internalNodes>
          <leafValues>
            -2.0343953371047974e-01 8.5333371162414551e-01</leafValues></_>
        <_>
          <internalNodes>
            0 -1 91 2.9259673319756985e-03</internalNodes>
          <leafValues>
            -2.0836481451988220e-01 6.8521988391876221e-01</leafValues></_>
        <_>
          <internalNodes>
            0 -1 111 1.9382088794372976e-05</internalNodes>
          <leafValues>
            -3.6322659254074097e-01 3.9603057503700256e-01</leafValues></_>
        <_>
          <internalNodes>
            0 -1 97 -1.7123546451330185e-02</internalNodes>
          <leafValues>
            -7.6513677835464478e-01 1.8261781334877014e-01</leafValues></_>
        <_>
          <internalNodes>
            0 -1 66 -6.4330203458666801e-03</internalNodes>
          <leafValues>
            -7.3577797412872314e-01 1.8029816448688507e-01</leafValues></_>
        <_>
          <internalNodes>
            0 -1 112 4.5900554396212101e-03</internalNodes>
          <leafValues>
            -2.2421105206012726e-01 6.3220465183258057e-01</leafValues></_>
        <_>
          <internalNodes>
            0 -1 59 -4.2223436757922173e-03</internalNodes>
          <leafValues>
            -8.4227031469345093e-01 1.8646241724491119e-01</leafValues></_></weakClassifiers></_>
    <!-- stage 2 -->
    <_>
      <maxWeakCount>9</maxWeakCount>
      <stageThreshold>-1.4715685844421387e+00</stageThreshold>
      <weakClassifiers>
        <_>
          <internalNodes>
            0 -1 57 6.3653513789176941e-02</internalNodes>
          <leafValues>
            -6.0502552986145020e-01 4.8692402243614197e-01</leafValues></_>
        <_>
          <internalNodes>
            0 -1 49 2.9364313930273056e-02</internalNodes>
          <leafValues>
            -4.0978908538818359e-01 4.4855466485023499e-01</leafValues></_>
        <_>
          <internalNodes>
            0 -1 131 3.4279883839190006e-03</internalNodes>
          <leafValues>
            -2.3102393746376038e-01 6.9028824567794800e-01</leafValues></_>
        <_>
          <internalNodes>
            0 -1 135 4.5123854652047157e-03</internalNodes>
          <leafValues>
            -2.5578474998474121e-01 6.9156748056411743e-01</leafValues></_>
        <_>
          <internalNodes>
            0 -1 126 4.8440042883157730e-03</internalNodes>
          <leafValues>
            -2.0613184571266174e-01 7.1319276094436646e-01</leafValues></_>
        <_>
          <internalNodes>
            0 -1 33 6.9320186972618103e-02</internalNodes>
          <leafValues>
            -1.9996823370456696e-01 6.6975969076156616e-01</leafValues></_>
        <_>
          <internalNodes>
            0 -1 60 4.0152236819267273e-02</internalNodes>
          <leafValues>
            1.9528213143348694e-01 -7.9991036653518677e-01</leafValues></_>
        <_>
          <internalNodes>
            0 -1 138 2.6824353262782097e-03</internalNodes>
          <leafValues>
            -2.4170577526092529e-01 5.4875272512435913e-01</leafValues></_>
        <_>
          <internalNodes>
            0 -1 141 4.2693386785686016e-03</internalNodes>
          <leafValues>
            -1.8241547048091888e-01 6.4790225028991699e-01</leafValues></_></weakClassifiers></_>
    <!-- stage 3 -->
    <_>
      <maxWeakCount>7</maxWeakCount>
      <stageThreshold>-1.3382775783538818e+00</stageThreshold>
      <weakClassifiers>
        <_>
          <internalNodes>
            0 -1 40 -6.0693155974149704e-03</internalNodes>
          <leafValues>
            2.7178671956062317e-01 -7.1244329214096069e-01</leafValues></_>
        <_>
          <internalNodes>
            0 -1 63 2.4622776545584202e-03</internalNodes>
          <leafValues>
            -3.6813786625862122e-01 6.8527203798294067e-01</leafValues></_>
        <_>
          <internalNodes>
            0 -1 64 -3.3858916722238064e-03</internalNodes>
          <leafValues>
            8.0388462543487549e-01 -2.7070996165275574e-01</leafValues></_>
        <_>
          <internalNodes>
            0 -1 102 1.8754689954221249e-03</internalNodes>
          <leafValues>
            -2.2273597121238708e-01 6.7789787054061890e-01</leafValues></_>
        <_>
          <internalNodes>
            0 -1 100 -2.8273346833884716e-03</internalNodes>
          <leafValues>
            7.1666818857192993e-01 -2.6383772492408752e-01</leafValues></_>
        <_>
          <internalNodes>
            0 -1 114 1.6772602684795856e-03</internalNodes>
          <leafValues>
            -1.7617754638195038e-01 7.2395437955856323e-01</leafValues></_>
        <_>
          <internalNodes>
            0 -1 115 -4.6844165772199631e-03</internalNodes>
          <leafValues>
            7.3488080501556396e-01 -2.2436712682247162e-01</leafValues></_></weakClassifiers></_>
    <!-- stage 4 -->
    <_>
      <maxWeakCount>10</maxWeakCount>
      <stageThreshold>-1.7808473110198975e+00</stageThreshold>
      <weakClassifiers>
        <_>
          <internalNodes>
            0 -1 14 1.1904103681445122e-02</internalNodes>
          <leafValues>
            -6.0441321134567261e-01 4.1574344038963318e-01</leafValues></_>
        <_>
          <internalNodes>
            0 -1 158 2.5514001026749611e-03</internalNodes>
          <leafValues>
            -2.6476731896400452e-01 7.5777453184127808e-01</leafValues></_>
        <_>
          <internalNodes>
            0 -1 158 -1.2117978185415268e-03</internalNodes>
          <leafValues>
            6.9809079170227051e-01 -3.0765965580940247e-01</leafValues></_>
        <_>
          <internalNodes>
            0 -1 83 2.3369516711682081e-03</internalNodes>
          <leafValues>
            -1.4579348266124725e-01 6.4800369739532471e-01</leafValues></_>
        <_>
          <internalNodes>
            0 -1 83 -2.1794820204377174e-03</internalNodes>
          <leafValues>
            6.4650082588195801e-01 -2.9387694597244263e-01</leafValues></_>
        <_>
          <internalNodes>
            0 -1 144 8.7422113865613937e-03</internalNodes>
          <leafValues>
            -1.9478440284729004e-01 5.5549514293670654e-01</leafValues></_>
        <_>
          <internalNodes>
            0 -1 146 8.0916273873299360e-04</internalNodes>
          <leafValues>
            -1.8844328820705414e-01 6.0883826017379761e-01</leafValues></_>
        <_>
          <internalNodes>
            0 -1 146 -7.8508025035262108e-04</internalNodes>
          <leafValues>
            6.3928169012069702e-01 -2.3379904031753540e-01</leafValues></_>
        <_>
          <internalNodes>
            0 -1 26 6.3523963093757629e-02</internalNodes>
          <leafValues>
            -2.0877411961555481e-01 5.8386427164077759e-01</leafValues></_>
        <_>
          <internalNodes>
            0 -1 73 -3.2073236070573330e-03</internalNodes>
          <leafValues>
            7.5977706909179688e-01 -1.3233298063278198e-01</leafValues></_></weakClassifiers></_>
    <!-- stage 5 -->
    <_>
      <maxWeakCount>13</maxWeakCount>
      <stageThreshold>-1.4805833101272583e+00</stageThreshold>
      <weakClassifiers>
        <_>
          <internalNodes>
            0 -1 176 -7.7787968330085278e-03</internalNodes>
          <leafValues>
            4.8730963468551636e-01 -5.2120333909988403e-01</leafValues></_>
        <_>
          <internalNodes>
            0 -1 42 1.0909894481301308e-02</internalNodes>
          <leafValues>
            -3.7523320317268372e-01 4.0570881962776184e-01</leafValues></_>
        <_>
          <internalNodes>
            0 -1 28 4.9640685319900513e-02</internalNodes>
          <leafValues>
            -2.3860129714012146e-01 4.9388357996940613e-01</leafValues></_>
        <_>
          <internalNodes>
            0 -1 73 1.8451639916747808e-03</internalNodes>
          <leafValues>
            -2.0188945531845093e-01 5.8147859573364258e-01</leafValues></_>
        <_>
          <internalNodes>
            0 -1 74 -3.5188584588468075e-03</internalNodes>
          <leafValues>
            6.5760207176208496e-01 -2.1574465930461884e-01</leafValues></_>
        <_>
          <internalNodes>
            0 -1 121 2.7215315494686365e-03</internalNodes>
          <leafValues>
            1.6024334728717804e-01 -7.4082994461059570e-01</leafValues></_>
        <_>
          <internalNodes>
            0 -1 121 -2.7682543732225895e-03</internalNodes>
          <leafValues>
            -6.9121688604354858e-01 1.8885806202888489e-01</leafValues></_>
        <_>
          <internalNodes>
            0 -1 134 2.1668591070920229e-03</internalNodes>
          <leafValues>
            -2.7090692520141602e-01 4.6010446548461914e-01</leafValues></_>
        <_>
          <internalNodes>
            0 -1 133 -9.7651162650436163e-04</internalNodes>
          <leafValues>
            4.9951377511024475e-01 -2.6409128308296204e-01</leafValues></_>
        <_>
          <internalNodes>
            0 -1 3 2.1533185616135597e-02</internalNodes>
          <leafValues>
            -1.3474027812480927e-01 6.3231259584426880e-01</leafValues></_>
        <_>
          <internalNodes>
            0 -1 104 7.8345676884055138e-03</internalNodes>
          <leafValues>
            1.5654122829437256e-01 -6.8383967876434326e-01</leafValues></_>
        <_>
          <internalNodes>
            0 -1 118 -5.2381064742803574e-03</internalNodes>
          <leafValues>
            5.7101994752883911e-01 -2.0157694816589355e-01</leafValues></_>
        <_>
          <internalNodes>
            0 -1 118 4.0112975984811783e-03</internalNodes>
          <leafValues>
            -2.1282151341438293e-01 5.6918025016784668e-01</leafValues></_></weakClassifiers></_>
    <!-- stage 6 -->
    <_>
      <maxWeakCount>15</maxWeakCount>
      <stageThreshold>-1.6008485555648804e+00</stageThreshold>
      <weakClassifiers>
        <_>
          <internalNodes>
            0 -1 142 3.1285259872674942e-02</internalNodes>
          <leafValues>
            -5.7946014404296875e-01 3.1302875280380249e-01</leafValues></_>
        <_>
          <internalNodes>
            0 -1 23 -9.6027724444866180e-02</internalNodes>
          <leafValues>
            3.9363819360733032e-01 -4.1413879394531250e-01</leafValues></_>
        <_>
          <internalNodes>
            0 -1 59 3.1441908795386553e-03</internalNodes>
          <leafValues>
            1.5641918778419495e-01 -7.3058277368545532e-01</leafValues></_>
        <_>
          <internalNodes>
            0 -1 79 2.8232880868017673e-03</internalNodes>
          <leafValues>
            1.6348315775394440e-01 -6.9568765163421631e-01</leafValues></_>
        <_>
          <internalNodes>
            0 -1 88 -2.8549162670969963e-03</internalNodes>
          <leafValues>
            -7.3418664932250977e-01 1.4714343845844269e-01</leafValues></_>
        <_>
          <internalNodes>
            0 -1 55 -6.0109258629381657e-03</internalNodes>
          <leafValues>
            5.1341086626052856e-01 -1.8945622444152832e-01</leafValues></_>
        <_>
          <internalNodes>
            0 -1 56 4.7977366484701633e-03</internalNodes>
          <leafValues>
            -2.4648196995258331e-01 5.6307494640350342e-01</leafValues></_>
        <_>
          <internalNodes>
            0 -1 27 4.5189633965492249e-02</internalNodes>
          <leafValues>
            -1.8737143278121948e-01 4.3757808208465576e-01</leafValues></_>
        <_>
          <internalNodes>
            0 -1 7 -4.1875895112752914e-03</internalNodes>
          <leafValues>
            -5.8259886503219604e-01 1.4404155313968658e-01</leafValues></_>
        <_>
          <internalNodes>
            0 -1 137 -1.9112747162580490e-02</internalNodes>
          <leafValues>
            5.9153419733047485e-01 -1.6877810657024384e-01</leafValues></_>
        <_>
          <internalNodes>
            0 -1 89 1.3017178280279040e-03</internalNodes>
          <leafValues>
            1.9457283616065979e-01 -4.9209490418434143e-01</leafValues></_>
        <_>
          <internalNodes>
            0 -1 98 7.5050545856356621e-03</internalNodes>
          <leafValues>
            -2.1372102200984955e-01 4.5837345719337463e-01</leafValues></_>
        <_>
          <internalNodes>
            0 -1 45 2.9710181988775730e-03</internalNodes>
          <leafValues>
            1.5924750268459320e-01 -6.2413072586059570e-01</leafValues></_>
        <_>
          <internalNodes>
            0 -1 38 5.5946772918105125e-03</internalNodes>
          <leafValues>
            -2.5867342948913574e-01 3.1662583351135254e-01</leafValues></_>
        <_>
          <internalNodes>
            0 -1 102 -4.3690139427781105e-03</internalNodes>
          <leafValues>
            4.7570306062698364e-01 -1.6637948155403137e-01</leafValues></_></weakClassifiers></_>
    <!-- stage 7 -->
    <_>
      <maxWeakCount>14</maxWeakCount>
      <stageThreshold>-1.5408537387847900e+00</stageThreshold>
      <weakClassifiers>
        <_>
          <internalNodes>
            0 -1 171 -2.2680774331092834e-02</internalNodes>
          <leafValues>
            3.7334373593330383e-01 -5.1301455497741699e-01</leafValues></_>
        <_>
          <internalNodes>
            0 -1 1 -1.4418933540582657e-02</internalNodes>
          <leafValues>
            4.1851091384887695e-01 -3.3221065998077393e-01</leafValues></_>
        <_>
          <internalNodes>
            0 -1 168 3.6089909262955189e-03</internalNodes>
          <leafValues>
            -1.5917816758155823e-01 6.9848555326461792e-01</leafValues></_>
        <_>
          <internalNodes>
            0 -1 166 2.8153490275144577e-03</internalNodes>
          <leafValues>
            -1.6907152533531189e-01 6.5852016210556030e-01</leafValues></_>
        <_>
          <internalNodes>
            0 -1 165 -8.8999676518142223e-04</internalNodes>
          <leafValues>
            4.8908540606498718e-01 -1.8263424932956696e-01</leafValues></_>
        <_>
          <internalNodes>
            0 -1 11 1.0222182609140873e-03</internalNodes>
          <leafValues>
            1.6166089475154877e-01 -6.5678846836090088e-01</leafValues></_>
        <_>
          <internalNodes>
            0 -1 11 -1.8595864530652761e-03</internalNodes>
          <leafValues>
            -7.5999939441680908e-01 1.1111926287412643e-01</leafValues></_>
        <_>
          <internalNodes>
            0 -1 93 -1.3589315349236131e-03</internalNodes>
          <leafValues>
            5.1743286848068237e-01 -1.5926516056060791e-01</leafValues></_>
        <_>
          <internalNodes>
            0 -1 95 -2.6125649455934763e-03</internalNodes>
          <leafValues>
            -8.6416327953338623e-01 1.0544779896736145e-01</leafValues></_>
        <_>
          <internalNodes>
            0 -1 148 8.7040942162275314e-04</internalNodes>
          <leafValues>
            -1.9969642162322998e-01 4.3900209665298462e-01</leafValues></_>
        <_>
          <internalNodes>
            0 -1 148 -1.0784392943605781e-03</internalNodes>
          <leafValues>
            5.4476857185363770e-01 -1.9311919808387756e-01</leafValues></_>
        <_>
          <internalNodes>
            0 -1 181 -2.8503474313765764e-03</internalNodes>
          <leafValues>
            -5.2131199836730957e-01 1.8809179961681366e-01</leafValues></_>
        <_>
          <internalNodes>
            0 -1 82 -1.7241868190467358e-03</internalNodes>
          <leafValues>
            -5.8691751956939697e-01 1.2381307035684586e-01</leafValues></_>
        <_>
          <internalNodes>
            0 -1 68 -2.5976743199862540e-04</internalNodes>
          <leafValues>
            2.6974609494209290e-01 -2.9918390512466431e-01</leafValues></_></weakClassifiers></_>
    <!-- stage 8 -->
    <_>
      <maxWeakCount>17</maxWeakCount>
      <stageThreshold>-1.6019182205200195e+00</stageThreshold>
      <weakClassifiers>
        <_>
          <internalNodes>
            0 -1 150 -1.5850890427827835e-02</internalNodes>
          <leafValues>
            9.4827584922313690e-02 -5.7534247636795044e-01</leafValues></_>
        <_>
          <internalNodes>
            0 -1 172 -1.4289491809904575e-03</internalNodes>
          <leafValues>
            3.5854601860046387e-01 -3.1174227595329285e-01</leafValues></_>
        <_>
          <internalNodes>
            0 -1 180 -8.0253503983840346e-04</internalNodes>
          <leafValues>
            -5.8792763948440552e-01 1.5462313592433929e-01</leafValues></_>
        <_>
          <internalNodes>
            0 -1 53 3.5618187393993139e-04</internalNodes>
          <leafValues>
            -3.0487704277038574e-01 2.8503313660621643e-01</leafValues></_>
        <_>
          <internalNodes>
            0 -1 180 1.0217308299615979e-03</internalNodes>
          <leafValues>
            1.6953514516353607e-01 -5.4905200004577637e-01</leafValues></_>
        <_>
          <internalNodes>
            0 -1 31 -5.0317384302616119e-03</internalNodes>
          <leafValues>
            5.2603644132614136e-01 -1.9585604965686798e-01</leafValues></_>
        <_>
          <internalNodes>
            0 -1 30 1.6168840229511261e-03</internalNodes>
          <leafValues>
            -1.8525879085063934e-01 4.8145127296447754e-01</leafValues></_>
        <_>
          <internalNodes>
            0 -1 85 -1.6084919916465878e-03</internalNodes>
          <leafValues>
            -7.3299348354339600e-01 1.3121828436851501e-01</leafValues></_>
        <_>
          <internalNodes>
            0 -1 84 -9.9530897568911314e-04</internalNodes>
          <leafValues>
            4.4362345337867737e-01 -1.9786025583744049e-01</leafValues></_>
        <_>
          <internalNodes>
            0 -1 85 1.4637751737609506e-03</internalNodes>
          <leafValues>
            1.5682522952556610e-01 -6.9175481796264648e-01</leafValues></_>
        <_>
          <internalNodes>
            0 -1 84 7.5467769056558609e-04</internalNodes>
          <leafValues>
            -2.3013710975646973e-01 4.1940739750862122e-01</leafValues></_>
        <_>
          <internalNodes>
            0 -1 159 -1.5142584452405572e-03</internalNodes>
          <leafValues>
            5.5688410997390747e-01 -1.1994693428277969e-01</leafValues></_>
        <_>
          <internalNodes>
            0 -1 154 3.2339454628527164e-03</internalNodes>
          <leafValues>
            -1.3885289430618286e-01 5.7310879230499268e-01</leafValues></_>
        <_>
          <internalNodes>
            0 -1 156 -3.4133810549974442e-03</internalNodes>
          <leafValues>
            -8.2678520679473877e-01 1.2365286797285080e-01</leafValues></_>
        <_>
          <internalNodes>
            0 -1 72 1.9566328264772892e-03</internalNodes>
          <leafValues>
            -2.2763149440288544e-01 3.1545487046241760e-01</leafValues></_>
        <_>
          <internalNodes>
            0 -1 81 -6.4228259027004242e-02</internalNodes>
          <leafValues>
            -5.5177831649780273e-01 1.3153517246246338e-01</leafValues></_>
        <_>
          <internalNodes>
            0 -1 65 1.9221268594264984e-02</internalNodes>
          <leafValues>
            8.7239816784858704e-02 -7.6316297054290771e-01</leafValues></_></weakClassifiers></_>
    <!-- stage 9 -->
    <_>
      <maxWeakCount>14</maxWeakCount>
      <stageThreshold>-1.5000778436660767e+00</stageThreshold>
      <weakClassifiers>
        <_>
          <internalNodes>
            0 -1 14 1.1573657393455505e-02</internalNodes>
          <leafValues>
            -5.9106677770614624e-01 2.0402298867702484e-01</leafValues></_>
        <_>
          <internalNodes>
            0 -1 96 2.1334043703973293e-03</internalNodes>
          <leafValues>
            8.8227629661560059e-02 -8.3622920513153076e-01</leafValues></_>
        <_>
          <internalNodes>
            0 -1 20 -1.0714292526245117e-01</internalNodes>
          <leafValues>
            5.6430804729461670e-01 -2.0565178990364075e-01</leafValues></_>
        <_>
          <internalNodes>
            0 -1 96 -7.9990853555500507e-04</internalNodes>
          <leafValues>
            -6.1398285627365112e-01 2.4290770292282104e-01</leafValues></_>
        <_>
          <internalNodes>
            0 -1 129 -9.9579594098031521e-04</internalNodes>
          <leafValues>
            -8.6051267385482788e-01 3.3071558922529221e-02</leafValues></_>
        <_>
          <internalNodes>
            0 -1 129 5.7556782849133015e-04</internalNodes>
          <leafValues>
            1.2330526113510132e-01 -6.2102282047271729e-01</leafValues></_>
        <_>
          <internalNodes>
            0 -1 109 3.0134043190628290e-03</internalNodes>
          <leafValues>
            -1.5898053348064423e-01 5.6994885206222534e-01</leafValues></_>
        <_>
          <internalNodes>
            0 -1 107 -4.3715098872780800e-03</internalNodes>
          <leafValues>
            5.9040755033493042e-01 -2.3578569293022156e-01</leafValues></_>
        <_>
          <internalNodes>
            0 -1 161 5.1880506798624992e-03</internalNodes>
          <leafValues>
            -2.6705822348594666e-01 3.0719915032386780e-01</leafValues></_>
        <_>
          <internalNodes>
            0 -1 8 1.1996165849268436e-02</internalNodes>
          <leafValues>
            1.1688542366027832e-01 -6.4886909723281860e-01</leafValues></_>
        <_>
          <internalNodes>
            0 -1 6 -1.5339251840487123e-03</internalNodes>
          <leafValues>
            -5.0031912326812744e-01 1.5295194089412689e-01</leafValues></_>
        <_>
          <internalNodes>
            0 -1 58 -1.7388553824275732e-03</internalNodes>
          <leafValues>
            -7.2293239831924438e-01 1.0005795210599899e-01</leafValues></_>
        <_>
          <internalNodes>
            0 -1 69 -8.6418219143524766e-04</internalNodes>
          <leafValues>
            -8.1170648336410522e-01 7.8479655086994171e-02</leafValues></_>
        <_>
          <internalNodes>
            0 -1 106 1.9090182613581419e-03</internalNodes>
          <leafValues>
            -2.1112899482250214e-01 3.6005222797393799e-01</leafValues></_></weakClassifiers></_>
    <!-- stage 10 -->
    <_>
      <maxWeakCount>17</maxWeakCount>
      <stageThreshold>-1.4407101869583130e+00</stageThreshold>
      <weakClassifiers>
        <_>
          <internalNodes>
            0 -1 19 1.5811923146247864e-01</internalNodes>
          <leafValues>
            -4.9798706173896790e-01 5.5217832326889038e-01</leafValues></_>
        <_>
          <internalNodes>
            0 -1 21 1.0659830272197723e-01</internalNodes>
          <leafValues>
            -2.3214086890220642e-01 6.7182123661041260e-01</leafValues></_>
        <_>
          <internalNodes>
            0 -1 52 2.2522002109326422e-04</internalNodes>
          <leafValues>
            -3.2234758138656616e-01 3.1453999876976013e-01</leafValues></_>
        <_>
          <internalNodes>
            0 -1 160 2.4142504844348878e-04</internalNodes>
          <leafValues>
            -3.3466562628746033e-01 2.7118447422981262e-01</leafValues></_>
        <_>
          <internalNodes>
            0 -1 24 9.0478911995887756e-02</internalNodes>
          <leafValues>
            -1.7975282669067383e-01 4.4147026538848877e-01</leafValues></_>
        <_>
          <internalNodes>
            0 -1 157 -2.8823802713304758e-03</internalNodes>
          <leafValues>
            -7.2961372137069702e-01 1.0296526551246643e-01</leafValues></_>
        <_>
          <internalNodes>
            0 -1 113 -7.2153076529502869e-02</internalNodes>
          <leafValues>
            7.3247617483139038e-01 -8.8792458176612854e-02</leafValues></_>
        <_>
          <internalNodes>
            0 -1 149 6.7118136212229729e-04</internalNodes>
          <leafValues>
            -2.6851230859756470e-01 2.5802809000015259e-01</leafValues></_>
        <_>
          <internalNodes>
            0 -1 182 1.1844201944768429e-03</internalNodes>
          <leafValues>
            1.3308398425579071e-01 -5.9028726816177368e-01</leafValues></_>
        <_>
          <internalNodes>
            0 -1 120 2.8872187249362469e-03</internalNodes>
          <leafValues>
            -1.7372642457485199e-01 4.4288164377212524e-01</leafValues></_>
        <_>
          <internalNodes>
            0 -1 122 2.7810111641883850e-03</internalNodes>
          <leafValues>
            -1.4638659358024597e-01 4.4914186000823975e-01</leafValues></_>
        <_>
          <internalNodes>
            0 -1 147 -2.8337808325886726e-03</internalNodes>
          <leafValues>
            -7.4692749977111816e-01 9.6740894019603729e-02</leafValues></_>
        <_>
          <internalNodes>
            0 -1 54 4.2149317450821400e-03</internalNodes>
          <leafValues>
            7.2045728564262390e-02 -7.0581179857254028e-01</leafValues></_>
        <_>
          <internalNodes>
            0 -1 41 3.7431437522172928e-03</internalNodes>
          <leafValues>
            -3.0239275097846985e-01 2.1393479406833649e-01</leafValues></_>
        <_>
          <internalNodes>
            0 -1 76 7.5420551002025604e-04</internalNodes>
          <leafValues>
            8.8206686079502106e-02 -7.4794715642929077e-01</leafValues></_>
        <_>
          <internalNodes>
            0 -1 117 1.7730733379721642e-03</internalNodes>
          <leafValues>
            -1.8294073641300201e-01 3.3968716859817505e-01</leafValues></_>
        <_>
          <internalNodes>
            0 -1 34 -5.9700210113078356e-04</internalNodes>
          <leafValues>
            2.9057490825653076e-01 -1.9607317447662354e-01</leafValues></_></weakClassifiers></_>
    <!-- stage 11 -->
    <_>
      <maxWeakCount>23</maxWeakCount>
      <stageThreshold>-1.5869565010070801e+00</stageThreshold>
      <weakClassifiers>
        <_>
          <internalNodes>
            0 -1 2 9.8430879414081573e-02</internalNodes>
          <leafValues>
            -5.0046598911285400e-01 2.8838950395584106e-01</leafValues></_>
        <_>
          <internalNodes>
            0 -1 164 5.0609065219759941e-03</internalNodes>
          <leafValues>
            -3.0919462442398071e-01 3.2471302151679993e-01</leafValues></_>
        <_>
          <internalNodes>
            0 -1 174 1.5551922842860222e-02</internalNodes>
          <leafValues>
            -1.1806413531303406e-01 5.9744536876678467e-01</leafValues></_>
        <_>
          <internalNodes>
            0 -1 124 -9.8584801889955997e-04</internalNodes>
          <leafValues>
            -6.2160927057266235e-01 1.0968029499053955e-01</leafValues></_>
        <_>
          <internalNodes>
            0 -1 162 -1.6246542800217867e-03</internalNodes>
          <leafValues>
            5.1225715875625610e-01 -1.2827531993389130e-01</leafValues></_>
        <_>
          <internalNodes>
            0 -1 162 1.3942073564976454e-03</internalNodes>
          <leafValues>
            -1.5274386107921600e-01 5.0428295135498047e-01</leafValues></_>
        <_>
          <internalNodes>
            0 -1 156 1.5568698290735483e-03</internalNodes>
          <leafValues>
            1.5080140531063080e-01 -5.6794863939285278e-01</leafValues></_>
        <_>
          <internalNodes>
            0 -1 62 2.1025799214839935e-03</internalNodes>
          <leafValues>
            -1.9277223944664001e-01 3.5311067104339600e-01</leafValues></_>
        <_>
          <internalNodes>
            0 -1 44 -3.6273184232413769e-03</internalNodes>
          <leafValues>
            -5.2392965555191040e-01 1.1753112822771072e-01</leafValues></_>
        <_>
          <internalNodes>
            0 -1 51 -5.3488132543861866e-03</internalNodes>
          <leafValues>
            2.7749565243721008e-01 -2.1886315941810608e-01</leafValues></_>
        <_>
          <internalNodes>
            0 -1 169 -4.0568739175796509e-02</internalNodes>
          <leafValues>
            5.3600102663040161e-01 -1.1800763010978699e-01</leafValues></_>
        <_>
          <internalNodes>
            0 -1 151 -1.6331986989825964e-03</internalNodes>
          <leafValues>
            5.0310957431793213e-01 -1.0827597230672836e-01</leafValues></_>
        <_>
          <internalNodes>
            0 -1 139 3.7947468459606171e-02</internalNodes>
          <leafValues>
            1.0307646542787552e-01 -6.0777884721755981e-01</leafValues></_>
        <_>
          <internalNodes>
            0 -1 152 -1.6091059660539031e-03</internalNodes>
          <leafValues>
            4.6402069926261902e-01 -1.4114211499691010e-01</leafValues></_>
        <_>
          <internalNodes>
            0 -1 153 1.8817586824297905e-03</internalNodes>
          <leafValues>
            -1.5868909657001495e-01 4.0889585018157959e-01</leafValues></_>
        <_>
          <internalNodes>
            0 -1 179 -4.8278113827109337e-03</internalNodes>
          <leafValues>
            -6.4392346143722534e-01 9.6097819507122040e-02</leafValues></_>
        <_>
          <internalNodes>
            0 -1 145 2.1782018244266510e-02</internalNodes>
          <leafValues>
            5.4241757839918137e-02 -7.7474552392959595e-01</leafValues></_>
        <_>
          <internalNodes>
            0 -1 143 2.1391375921666622e-03</internalNodes>
          <leafValues>
            -2.2968491911888123e-01 2.6905301213264465e-01</leafValues></_>
        <_>
          <internalNodes>
            0 -1 10 5.4908441379666328e-03</internalNodes>
          <leafValues>
            5.6141816079616547e-02 -8.8549160957336426e-01</leafValues></_>
        <_>
          <internalNodes>
            0 -1 10 -1.6986741684377193e-03</internalNodes>
          <leafValues>
            -4.9733138084411621e-01 9.4078078866004944e-02</leafValues></_>
        <_>
          <internalNodes>
            0 -1 87 -1.2992690317332745e-03</internalNodes>
          <leafValues>
            -7.2057431936264038e-01 6.3564695417881012e-02</leafValues></_>
        <_>
          <internalNodes>
            0 -1 90 1.2298406800255179e-03</internalNodes>
          <leafValues>
            -1.4838153123855591e-01 3.8332551717758179e-01</leafValues></_>
        <_>
          <internalNodes>
            0 -1 39 8.2874506711959839e-02</internalNodes>
          <leafValues>
            9.2390596866607666e-02 -5.9679311513900757e-01</leafValues></_></weakClassifiers></_>
    <!-- stage 12 -->
    <_>
      <maxWeakCount>20</maxWeakCount>
      <stageThreshold>-1.4941788911819458e+00</stageThreshold>
      <weakClassifiers>
        <_>
          <internalNodes>
            0 -1 46 6.5182766411453485e-04</internalNodes>
          <leafValues>
            -6.4319497346878052e-01 5.1140289753675461e-02</leafValues></_>
        <_>
          <internalNodes>
            0 -1 132 -6.2871281988918781e-04</internalNodes>
          <leafValues>
            3.2538449764251709e-01 -3.5597190260887146e-01</leafValues></_>
        <_>
          <internalNodes>
            0 -1 177 -2.5384395848959684e-03</internalNodes>
          <leafValues>
            -6.6002559661865234e-01 1.3869719207286835e-01</leafValues></_>
        <_>
          <internalNodes>
            0 -1 170 -9.2531758127734065e-04</internalNodes>
          <leafValues>
            3.1638631224632263e-01 -2.1757076680660248e-01</leafValues></_>
        <_>
          <internalNodes>
            0 -1 29 9.2134308069944382e-03</internalNodes>
          <leafValues>
            -2.6229745149612427e-01 2.6592805981636047e-01</leafValues></_>
        <_>
          <internalNodes>
            0 -1 35 -5.4681173060089350e-04</internalNodes>
          <leafValues>
            -5.7445764541625977e-01 1.0628563165664673e-01</leafValues></_>
        <_>
          <internalNodes>
            0 -1 167 -8.5276719182729721e-03</internalNodes>
          <leafValues>
            3.5226020216941833e-01 -1.6071583330631256e-01</leafValues></_>
        <_>
          <internalNodes>
            0 -1 110 -2.9085058718919754e-02</internalNodes>
          <leafValues>
            4.9661073088645935e-01 -1.5721993148326874e-01</leafValues></_>
        <_>
          <internalNodes>
            0 -1 12 2.7840454131364822e-02</internalNodes>
          <leafValues>
            -1.0454306006431580e-01 5.1975071430206299e-01</leafValues></_>
        <_>
          <internalNodes>
            0 -1 128 1.6264491714537144e-03</internalNodes>
          <leafValues>
            1.0914770513772964e-01 -6.6555595397949219e-01</leafValues></_>
        <_>
          <internalNodes>
            0 -1 125 3.3525243401527405e-02</internalNodes>
          <leafValues>
            -1.3028891384601593e-01 4.8166421055793762e-01</leafValues></_>
        <_>
          <internalNodes>
            0 -1 71 3.8313865661621094e-04</internalNodes>
          <leafValues>
            -2.2326882183551788e-01 2.5112548470497131e-01</leafValues></_>
        <_>
          <internalNodes>
            0 -1 15 2.0044445991516113e-03</internalNodes>
          <leafValues>
            8.2086928188800812e-02 -7.4181914329528809e-01</leafValues></_>
        <_>
          <internalNodes>
            0 -1 36 -1.4855951070785522e-02</internalNodes>
          <leafValues>
            2.3843474686145782e-01 -2.3250989615917206e-01</leafValues></_>
        <_>
          <internalNodes>
            0 -1 47 -1.1423486284911633e-03</internalNodes>
          <leafValues>
            -7.2291451692581177e-01 6.5633542835712433e-02</leafValues></_>
        <_>
          <internalNodes>
            0 -1 116 2.6286356151103973e-03</internalNodes>
          <leafValues>
            4.4753354042768478e-02 -8.6587542295455933e-01</leafValues></_>
        <_>
          <internalNodes>
            0 -1 50 1.7446212004870176e-03</internalNodes>
          <leafValues>
            -1.9453419744968414e-01 2.5862184166908264e-01</leafValues></_>
        <_>
          <internalNodes>
            0 -1 101 -9.2511093243956566e-03</internalNodes>
          <leafValues>
            2.4784763157367706e-01 -2.0366854965686798e-01</leafValues></_>
        <_>
          <internalNodes>
            0 -1 155 1.1530838906764984e-02</internalNodes>
          <leafValues>
            -1.5326079726219177e-01 2.9467523097991943e-01</leafValues></_>
        <_>
          <internalNodes>
            0 -1 178 4.2371521703898907e-03</internalNodes>
          <leafValues>
            7.0711471140384674e-02 -7.0744639635086060e-01</leafValues></_></weakClassifiers></_>
    <!-- stage 13 -->
    <_>
      <maxWeakCount>27</maxWeakCount>
      <stageThreshold>-1.5827410221099854e+00</stageThreshold>
      <weakClassifiers>
        <_>
          <internalNodes>
            0 -1 0 1.2725933454930782e-02</internalNodes>
          <leafValues>
            -4.9030470848083496e-01 2.7626457810401917e-01</leafValues></_>
        <_>
          <internalNodes>
            0 -1 32 3.3184005878865719e-03</internalNodes>
          <leafValues>
            -3.3647313714027405e-01 2.1479648351669312e-01</leafValues></_>
        <_>
          <internalNodes>
            0 -1 158 2.8967754915356636e-03</internalNodes>
          <leafValues>
            -1.6063545644283295e-01 4.5912849903106689e-01</leafValues></_>
        <_>
          <internalNodes>
            0 -1 162 -5.5091513786464930e-04</internalNodes>
          <leafValues>
            3.6567094922065735e-01 -2.0595353841781616e-01</leafValues></_>
        <_>
          <internalNodes>
            0 -1 163 -1.7079366371035576e-03</internalNodes>
          <leafValues>
            4.6729898452758789e-01 -1.2347001582384109e-01</leafValues></_>
        <_>
          <internalNodes>
            0 -1 105 -1.3931898865848780e-03</internalNodes>
          <leafValues>
            -5.3344285488128662e-01 1.1792064458131790e-01</leafValues></_>
        <_>
          <internalNodes>
            0 -1 105 9.1162498574703932e-04</internalNodes>
          <leafValues>
            1.4400814473628998e-01 -5.2976745367050171e-01</leafValues></_>
        <_>
          <internalNodes>
            0 -1 80 3.7544379010796547e-03</internalNodes>
          <leafValues>
            -2.3739953339099884e-01 2.3636841773986816e-01</leafValues></_>
        <_>
          <internalNodes>
            0 -1 136 2.0202531013637781e-03</internalNodes>
          <leafValues>
            -1.5717542171478271e-01 3.7655466794967651e-01</leafValues></_>
        <_>
          <internalNodes>
            0 -1 130 1.9918712787330151e-03</internalNodes>
          <leafValues>
            -1.9619715213775635e-01 3.6700481176376343e-01</leafValues></_>
        <_>
          <internalNodes>
            0 -1 127 1.4814410824328661e-03</internalNodes>
          <leafValues>
            -2.0768246054649353e-01 3.1272509694099426e-01</leafValues></_>
        <_>
          <internalNodes>
            0 -1 37 -1.4584818482398987e-01</internalNodes>
          <leafValues>
            7.6896053552627563e-01 -6.7065924406051636e-02</leafValues></_>
        <_>
          <internalNodes>
            0 -1 4 2.7121179737150669e-03</internalNodes>
          <leafValues>
            -2.0196689665317535e-01 2.4863666296005249e-01</leafValues></_>
        <_>
          <internalNodes>
            0 -1 86 8.3750474732369184e-04</internalNodes>
          <leafValues>
            6.6015556454658508e-02 -7.5400459766387939e-01</leafValues></_>
        <_>
          <internalNodes>
            0 -1 173 1.5246914699673653e-03</internalNodes>
          <leafValues>
            -1.4659166336059570e-01 3.3172416687011719e-01</leafValues></_>
        <_>
          <internalNodes>
            0 -1 119 4.3558143079280853e-03</internalNodes>
          <leafValues>
            9.4796180725097656e-02 -5.2213579416275024e-01</leafValues></_>
        <_>
          <internalNodes>
            0 -1 94 2.1489968057721853e-03</internalNodes>
          <leafValues>
            -1.4185141026973724e-01 3.5017606616020203e-01</leafValues></_>
        <_>
          <internalNodes>
            0 -1 13 3.3001904375851154e-03</internalNodes>
          <leafValues>
            9.5009990036487579e-02 -5.8538687229156494e-01</leafValues></_>
        <_>
          <internalNodes>
            0 -1 77 -3.6321897059679031e-03</internalNodes>
          <leafValues>
            2.9182222485542297e-01 -1.6563965380191803e-01</leafValues></_>
        <_>
          <internalNodes>
            0 -1 25 -7.4989133281633258e-04</internalNodes>
          <leafValues>
            -5.6818938255310059e-01 8.5194133222103119e-02</leafValues></_>
        <_>
          <internalNodes>
            0 -1 9 -3.3510979264974594e-03</internalNodes>
          <leafValues>
            -4.9806916713714600e-01 9.0885579586029053e-02</leafValues></_>
        <_>
          <internalNodes>
            0 -1 17 -1.1620126664638519e-01</internalNodes>
          <leafValues>
            4.7398740053176880e-01 -1.0342155396938324e-01</leafValues></_>
        <_>
          <internalNodes>
            0 -1 140 -2.0044192206114531e-03</internalNodes>
          <leafValues>
            4.5363533496856689e-01 -1.0139553248882294e-01</leafValues></_>
        <_>
          <internalNodes>
            0 -1 175 -3.3143316395580769e-03</internalNodes>
          <leafValues>
            -5.4990184307098389e-01 9.1332055628299713e-02</leafValues></_>
        <_>
          <internalNodes>
            0 -1 78 1.3137022033333778e-03</internalNodes>
          <leafValues>
            -1.5601183474063873e-01 2.8716158866882324e-01</leafValues></_>
        <_>
          <internalNodes>
            0 -1 48 -6.3238390721380711e-03</internalNodes>
          <leafValues>
            -6.2165653705596924e-01 7.9567655920982361e-02</leafValues></_>
        <_>
          <internalNodes>
            0 -1 5 -2.8446838259696960e-03</internalNodes>
          <leafValues>
            -8.0435609817504883e-01 4.2645987123250961e-02</leafValues></_></weakClassifiers></_></stages>
  <features>
    <_>
      <rects>
        <_>
          0 0 2 9 -1.</_>
        <_>
          1 0 1 9 2.</_></rects>
      <tilted>0</tilted></_>
    <_>
      <rects>
        <_>
          0 0 8 6 -1.</_>
        <_>
          0 0 4 3 2.</_>
        <_>
          4 3 4 3 2.</_></rects>
      <tilted>0</tilted></_>
    <_>
      <rects>
        <_>
          0 0 40 2 -1.</_>
        <_>
          0 1 40 1 2.</_></rects>
      <tilted>0</tilted></_>
    <_>
      <rects>
        <_>
          0 1 4 7 -1.</_>
        <_>
          2 1 2 7 2.</_></rects>
      <tilted>0</tilted></_>
    <_>
      <rects>
        <_>
          0 1 15 1 -1.</_>
        <_>
          5 1 5 1 3.</_></rects>
      <tilted>0</tilted></_>
    <_>
      <rects>
        <_>
          0 2 1 3 -1.</_>
        <_>
          0 3 1 1 3.</_></rects>
      <tilted>0</tilted></_>
    <_>
      <rects>
        <_>
          0 2 1 4 -1.</_>
        <_>
          0 4 1 2 2.</_></rects>
      <tilted>0</tilted></_>
    <_>
      <rects>
        <_>
          0 2 1 6 -1.</_>
        <_>
          0 4 1 2 3.</_></rects>
      <tilted>0</tilted></_>
    <_>
      <rects>
        <_>
          0 2 3 6 -1.</_>
        <_>
          0 4 3 2 3.</_></rects>
      <tilted>0</tilted></_>
    <_>
      <rects>
        <_>
          0 3 1 6 -1.</_>
        <_>
          0 5 1 2 3.</_></rects>
      <tilted>0</tilted></_>
    <_>
      <rects>
        <_>
          0 3 2 3 -1.</_>
        <_>
          0 4 2 1 3.</_></rects>
      <tilted>0</tilted></_>
    <_>
      <rects>
        <_>
          0 4 1 3 -1.</_>
        <_>
          0 5 1 1 3.</_></rects>
      <tilted>0</tilted></_>
    <_>
      <rects>
        <_>
          0 4 6 5 -1.</_>
        <_>
          3 4 3 5 2.</_></rects>
      <tilted>0</tilted></_>
    <_>
      <rects>
        <_>
          0 5 2 3 -1.</_>
        <_>
          0 6 2 1 3.</_></rects>
      <tilted>0</tilted></_>
    <_>
      <rects>
        <_>
          0 5 8 4 -1.</_>
        <_>
          0 5 4 2 2.</_>
        <_>
          4 7 4 2 2.</_></rects>
      <tilted>0</tilted></_>
    <_>
      <rects>
        <_>
          0 6 1 2 -1.</_>
        <_>
          0 7 1 1 2.</_></rects>
      <tilted>0</tilted></_>
    <_>
      <rects>
        <_>
          1 0 43 2 -1.</_>
        <_>
          1 1 43 1 2.</_></rects>
      <tilted>0</tilted></_>
    <_>
      <rects>
        <_>
          1 8 33 2 -1.</_>
        <_>
          1 9 33 1 2.</_></rects>
      <tilted>0</tilted></_>
    <_>
      <rects>
        <_>
          1 8 42 2 -1.</_>
        <_>
          1 9 42 1 2.</_></rects>
      <tilted>0</tilted></_>
    <_>
      <rects>
        <_>
          2 7 39 3 -1.</_>
        <_>
          2 8 39 1 3.</_></rects>
      <tilted>0</tilted></_>
    <_>
      <rects>
        <_>
          2 8 38 2 -1.</_>
        <_>
          2 9 38 1 2.</_></rects>
      <tilted>0</tilted></_>
    <_>
      <rects>
        <_>
          3 6 39 3 -1.</_>
        <_>
          3 7 39 1 3.</_></rects>
      <tilted>0</tilted></_>
    <_>
      <rects>
        <_>
          4 1 37 9 -1.</_>
        <_>
          4 4 37 3 3.</_></rects>
      <tilted>0</tilted></_>
    <_>
      <rects>
        <_>
          4 2 38 6 -1.</_>
        <_>
          4 4 38 2 3.</_></rects>
      <tilted>0</tilted></_>
    <_>
      <rects>
        <_>
          4 6 32 4 -1.</_>
        <_>
          4 8 32 2 2.</_></rects>
      <tilted>0</tilted></_>
    <_>
      <rects>
        <_>
          5 0 3 1 -1.</_>
        <_>
          6 0 1 1 3.</_></rects>
      <tilted>0</tilted></_>
    <_>
      <rects>
        <_>
          5 0 35 3 -1.</_>
        <_>
          5 1 35 1 3.</_></rects>
      <tilted>0</tilted></_>
    <_>
      <rects>
        <_>
          5 0 39 2 -1.</_>
        <_>
          5 1 39 1 2.</_></rects>
      <tilted>0</tilted></_>
    <_>
      <rects>
        <_>
          5 1 31 3 -1.</_>
        <_>
          5 2 31 1 3.</_></rects>
      <tilted>0</tilted></_>
    <_>
      <rects>
        <_>
          5 2 8 6 -1.</_>
        <_>
          9 2 4 6 2.</_></rects>
      <tilted>0</tilted></_>
    <_>
      <rects>
        <_>
          5 4 3 1 -1.</_>
        <_>
          6 4 1 1 3.</_></rects>
      <tilted>0</tilted></_>
    <_>
      <rects>
        <_>
          5 4 3 2 -1.</_>
        <_>
          6 4 1 2 3.</_></rects>
      <tilted>0</tilted></_>
    <_>
      <rects>
        <_>
          5 6 6 2 -1.</_>
        <_>
          5 7 6 1 2.</_></rects>
      <tilted>0</tilted></_>
    <_>
      <rects>
        <_>
          5 6 36 3 -1.</_>
        <_>
          5 7 36 1 3.</_></rects>
      <tilted>0</tilted></_>
    <_>
      <rects>
        <_>
          5 8 1 2 -1.</_>
        <_>
          5 9 1 1 2.</_></rects>
      <tilted>0</tilted></_>
    <_>
      <rects>
        <_>
          6 0 3 1 -1.</_>
        <_>
          7 0 1 1 3.</_></rects>
      <tilted>0</tilted></_>
    <_>
      <rects>
        <_>
          6 0 4 6 -1.</_>
        <_>
          6 3 4 3 2.</_></rects>
      <tilted>0</tilted></_>
    <_>
      <rects>
        <_>
          6 0 37 3 -1.</_>
        <_>
          6 1 37 1 3.</_></rects>
      <tilted>0</tilted></_>
    <_>
      <rects>
        <_>
          6 1 8 4 -1.</_>
        <_>
          6 1 4 2 2.</_>
        <_>
          10 3 4 2 2.</_></rects>
      <tilted>0</tilted></_>
    <_>
      <rects>
        <_>
          6 1 30 8 -1.</_>
        <_>
          6 1 15 4 2.</_>
        <_>
          21 5 15 4 2.</_></rects>
      <tilted>0</tilted></_>
    <_>
      <rects>
        <_>
          6 2 5 4 -1.</_>
        <_>
          6 4 5 2 2.</_></rects>
      <tilted>0</tilted></_>
    <_>
      <rects>
        <_>
          6 4 8 4 -1.</_>
        <_>
          10 4 4 4 2.</_></rects>
      <tilted>0</tilted></_>
    <_>
      <rects>
        <_>
          6 5 4 4 -1.</_>
        <_>
          6 7 4 2 2.</_></rects>
      <tilted>0</tilted></_>
    <_>
      <rects>
        <_>
          6 7 33 3 -1.</_>
        <_>
          6 8 33 1 3.</_></rects>
      <tilted>0</tilted></_>
    <_>
      <rects>
        <_>
          6 8 9 2 -1.</_>
        <_>
          9 8 3 2 3.</_></rects>
      <tilted>0</tilted></_>
    <_>
      <rects>
        <_>
          6 9 9 1 -1.</_>
        <_>
          9 9 3 1 3.</_></rects>
      <tilted>0</tilted></_>
    <_>
      <rects>
        <_>
          7 0 1 2 -1.</_>
        <_>
          7 1 1 1 2.</_></rects>
      <tilted>0</tilted></_>
    <_>
      <rects>
        <_>
          7 0 3 1 -1.</_>
        <_>
          8 0 1 1 3.</_></rects>
      <tilted>0</tilted></_>
    <_>
      <rects>
        <_>
          7 0 4 3 -1.</_>
        <_>
          9 0 2 3 2.</_></rects>
      <tilted>0</tilted></_>
    <_>
      <rects>
        <_>
          7 0 35 2 -1.</_>
        <_>
          7 1 35 1 2.</_></rects>
      <tilted>0</tilted></_>
    <_>
      <rects>
        <_>
          7 1 16 1 -1.</_>
        <_>
          15 1 8 1 2.</_></rects>
      <tilted>0</tilted></_>
    <_>
      <rects>
        <_>
          7 2 2 4 -1.</_>
        <_>
          7 4 2 2 2.</_></rects>
      <tilted>0</tilted></_>
    <_>
      <rects>
        <_>
          7 5 3 2 -1.</_>
        <_>
          7 6 3 1 2.</_></rects>
      <tilted>0</tilted></_>
    <_>
      <rects>
        <_>
          8 0 1 2 -1.</_>
        <_>
          8 1 1 1 2.</_></rects>
      <tilted>0</tilted></_>
    <_>
      <rects>
        <_>
          8 0 9 1 -1.</_>
        <_>
          11 0 3 1 3.</_></rects>
      <tilted>0</tilted></_>
    <_>
      <rects>
        <_>
          8 3 3 4 -1.</_>
        <_>
          9 3 1 4 3.</_></rects>
      <tilted>0</tilted></_>
    <_>
      <rects>
        <_>
          8 4 3 3 -1.</_>
        <_>
          9 4 1 3 3.</_></rects>
      <tilted>0</tilted></_>
    <_>
      <rects>
        <_>
          8 7 33 3 -1.</_>
        <_>
          8 8 33 1 3.</_></rects>
      <tilted>0</tilted></_>
    <_>
      <rects>
        <_>
          9 9 6 1 -1.</_>
        <_>
          11 9 2 1 3.</_></rects>
      <tilted>0</tilted></_>
    <_>
      <rects>
        <_>
          9 9 9 1 -1.</_>
        <_>
          12 9 3 1 3.</_></rects>
      <tilted>0</tilted></_>
    <_>
      <rects>
        <_>
          10 0 24 3 -1.</_>
        <_>
          18 0 8 3 3.</_></rects>
      <tilted>0</tilted></_>
    <_>
      <rects>
        <_>
          10 4 3 3 -1.</_>
        <_>
          11 4 1 3 3.</_></rects>
      <tilted>0</tilted></_>
    <_>
      <rects>
        <_>
          11 4 3 1 -1.</_>
        <_>
          12 4 1 1 3.</_></rects>
      <tilted>0</tilted></_>
    <_>
      <rects>
        <_>
          11 4 3 2 -1.</_>
        <_>
          12 4 1 2 3.</_></rects>
      <tilted>0</tilted></_>
    <_>
      <rects>
        <_>
          11 4 3 3 -1.</_>
        <_>
          12 4 1 3 3.</_></rects>
      <tilted>0</tilted></_>
    <_>
      <rects>
        <_>
          11 4 20 1 -1.</_>
        <_>
          21 4 10 1 2.</_></rects>
      <tilted>0</tilted></_>
    <_>
      <rects>
        <_>
          12 0 15 1 -1.</_>
        <_>
          17 0 5 1 3.</_></rects>
      <tilted>0</tilted></_>
    <_>
      <rects>
        <_>
          12 1 1 3 -1.</_>
        <_>
          12 2 1 1 3.</_></rects>
      <tilted>0</tilted></_>
    <_>
      <rects>
        <_>
          12 8 1 2 -1.</_>
        <_>
          12 9 1 1 2.</_></rects>
      <tilted>0</tilted></_>
    <_>
      <rects>
        <_>
          12 9 2 1 -1.</_>
        <_>
          13 9 1 1 2.</_></rects>
      <tilted>0</tilted></_>
    <_>
      <rects>
        <_>
          13 0 26 3 -1.</_>
        <_>
          13 1 26 1 3.</_></rects>
      <tilted>0</tilted></_>
    <_>
      <rects>
        <_>
          13 1 1 2 -1.</_>
        <_>
          13 2 1 1 2.</_></rects>
      <tilted>0</tilted></_>
    <_>
      <rects>
        <_>
          13 4 3 2 -1.</_>
        <_>
          14 4 1 2 3.</_></rects>
      <tilted>0</tilted></_>
    <_>
      <rects>
        <_>
          13 5 3 1 -1.</_>
        <_>
          14 5 1 1 3.</_></rects>
      <tilted>0</tilted></_>
    <_>
      <rects>
        <_>
          13 5 3 2 -1.</_>
        <_>
          14 5 1 2 3.</_></rects>
      <tilted>0</tilted></_>
    <_>
      <rects>
        <_>
          13 6 14 3 -1.</_>
        <_>
          13 7 14 1 3.</_></rects>
      <tilted>0</tilted></_>
    <_>
      <rects>
        <_>
          13 9 3 1 -1.</_>
        <_>
          14 9 1 1 3.</_></rects>
      <tilted>0</tilted></_>
    <_>
      <rects>
        <_>
          14 3 3 3 -1.</_>
        <_>
          15 3 1 3 3.</_></rects>
      <tilted>0</tilted></_>
    <_>
      <rects>
        <_>
          14 4 3 1 -1.</_>
        <_>
          15 4 1 1 3.</_></rects>
      <tilted>0</tilted></_>
    <_>
      <rects>
        <_>
          15 0 9 1 -1.</_>
        <_>
          18 0 3 1 3.</_></rects>
      <tilted>0</tilted></_>
    <_>
      <rects>
        <_>
          15 0 4 2 -1.</_>
        <_>
          15 1 4 1 2.</_></rects>
      <tilted>0</tilted></_>
    <_>
      <rects>
        <_>
          15 0 24 10 -1.</_>
        <_>
          23 0 8 10 3.</_></rects>
      <tilted>0</tilted></_>
    <_>
      <rects>
        <_>
          15 1 9 1 -1.</_>
        <_>
          18 1 3 1 3.</_></rects>
      <tilted>0</tilted></_>
    <_>
      <rects>
        <_>
          15 4 3 2 -1.</_>
        <_>
          16 4 1 2 3.</_></rects>
      <tilted>0</tilted></_>
    <_>
      <rects>
        <_>
          15 5 2 2 -1.</_>
        <_>
          15 5 1 1 2.</_>
        <_>
          16 6 1 1 2.</_></rects>
      <tilted>0</tilted></_>
    <_>
      <rects>
        <_>
          15 9 6 1 -1.</_>
        <_>
          17 9 2 1 3.</_></rects>
      <tilted>0</tilted></_>
    <_>
      <rects>
        <_>
          16 0 2 1 -1.</_>
        <_>
          17 0 1 1 2.</_></rects>
      <tilted>0</tilted></_>
    <_>
      <rects>
        <_>
          16 0 2 2 -1.</_>
        <_>
          17 0 1 2 2.</_></rects>
      <tilted>0</tilted></_>
    <_>
      <rects>
        <_>
          16 0 6 2 -1.</_>
        <_>
          18 0 2 2 3.</_></rects>
      <tilted>0</tilted></_>
    <_>
      <rects>
        <_>
          16 1 6 1 -1.</_>
        <_>
          18 1 2 1 3.</_></rects>
      <tilted>0</tilted></_>
    <_>
      <rects>
        <_>
          16 5 2 2 -1.</_>
        <_>
          16 5 1 1 2.</_>
        <_>
          17 6 1 1 2.</_></rects>
      <tilted>0</tilted></_>
    <_>
      <rects>
        <_>
          16 5 3 2 -1.</_>
        <_>
          17 5 1 2 3.</_></rects>
      <tilted>0</tilted></_>
    <_>
      <rects>
        <_>
          17 4 3 2 -1.</_>
        <_>
          18 4 1 2 3.</_></rects>
      <tilted>0</tilted></_>
    <_>
      <rects>
        <_>
          17 5 2 2 -1.</_>
        <_>
          17 5 1 1 2.</_>
        <_>
          18 6 1 1 2.</_></rects>
      <tilted>0</tilted></_>
    <_>
      <rects>
        <_>
          17 6 3 1 -1.</_>
        <_>
          18 6 1 1 3.</_></rects>
      <tilted>0</tilted></_>
    <_>
      <rects>
        <_>
          17 9 6 1 -1.</_>
        <_>
          19 9 2 1 3.</_></rects>
      <tilted>0</tilted></_>
    <_>
      <rects>
        <_>
          18 0 3 2 -1.</_>
        <_>
          19 0 1 2 3.</_></rects>
      <tilted>0</tilted></_>
    <_>
      <rects>
        <_>
          18 0 15 3 -1.</_>
        <_>
          23 0 5 3 3.</_></rects>
      <tilted>0</tilted></_>
    <_>
      <rects>
        <_>
          18 1 3 6 -1.</_>
        <_>
          19 1 1 6 3.</_></rects>
      <tilted>0</tilted></_>
    <_>
      <rects>
        <_>
          18 4 3 2 -1.</_>
        <_>
          19 4 1 2 3.</_></rects>
      <tilted>0</tilted></_>
    <_>
      <rects>
        <_>
          18 4 3 3 -1.</_>
        <_>
          19 4 1 3 3.</_></rects>
      <tilted>0</tilted></_>
    <_>
      <rects>
        <_>
          18 4 9 4 -1.</_>
        <_>
          21 4 3 4 3.</_></rects>
      <tilted>0</tilted></_>
    <_>
      <rects>
        <_>
          18 5 3 2 -1.</_>
        <_>
          19 5 1 2 3.</_></rects>
      <tilted>0</tilted></_>
    <_>
      <rects>
        <_>
          18 9 6 1 -1.</_>
        <_>
          20 9 2 1 3.</_></rects>
      <tilted>0</tilted></_>
    <_>
      <rects>
        <_>
          19 0 10 2 -1.</_>
        <_>
          24 0 5 2 2.</_></rects>
      <tilted>0</tilted></_>
    <_>
      <rects>
        <_>
          19 1 6 1 -1.</_>
        <_>
          21 1 2 1 3.</_></rects>
      <tilted>0</tilted></_>
    <_>
      <rects>
        <_>
          19 3 3 2 -1.</_>
        <_>
          20 3 1 2 3.</_></rects>
      <tilted>0</tilted></_>
    <_>
      <rects>
        <_>
          19 4 3 2 -1.</_>
        <_>
          20 4 1 2 3.</_></rects>
      <tilted>0</tilted></_>
    <_>
      <rects>
        <_>
          19 4 3 3 -1.</_>
        <_>
          20 4 1 3 3.</_></rects>
      <tilted>0</tilted></_>
    <_>
      <rects>
        <_>
          19 5 3 1 -1.</_>
        <_>
          20 5 1 1 3.</_></rects>
      <tilted>0</tilted></_>
    <_>
      <rects>
        <_>
          19 7 15 3 -1.</_>
        <_>
          19 8 15 1 3.</_></rects>
      <tilted>0</tilted></_>
    <_>
      <rects>
        <_>
          20 0 1 2 -1.</_>
        <_>
          20 1 1 1 2.</_></rects>
      <tilted>0</tilted></_>
    <_>
      <rects>
        <_>
          20 4 3 3 -1.</_>
        <_>
          21 4 1 3 3.</_></rects>
      <tilted>0</tilted></_>
    <_>
      <rects>
        <_>
          21 0 22 3 -1.</_>
        <_>
          21 1 22 1 3.</_></rects>
      <tilted>0</tilted></_>
    <_>
      <rects>
        <_>
          21 4 3 1 -1.</_>
        <_>
          22 4 1 1 3.</_></rects>
      <tilted>0</tilted></_>
    <_>
      <rects>
        <_>
          21 4 3 3 -1.</_>
        <_>
          22 4 1 3 3.</_></rects>
      <tilted>0</tilted></_>
    <_>
      <rects>
        <_>
          21 9 6 1 -1.</_>
        <_>
          23 9 2 1 3.</_></rects>
      <tilted>0</tilted></_>
    <_>
      <rects>
        <_>
          22 4 3 1 -1.</_>
        <_>
          23 4 1 1 3.</_></rects>
      <tilted>0</tilted></_>
    <_>
      <rects>
        <_>
          22 4 3 3 -1.</_>
        <_>
          23 4 1 3 3.</_></rects>
      <tilted>0</tilted></_>
    <_>
      <rects>
        <_>
          22 8 9 2 -1.</_>
        <_>
          25 8 3 2 3.</_></rects>
      <tilted>0</tilted></_>
    <_>
      <rects>
        <_>
          23 4 3 1 -1.</_>
        <_>
          24 4 1 1 3.</_></rects>
      <tilted>0</tilted></_>
    <_>
      <rects>
        <_>
          23 9 9 1 -1.</_>
        <_>
          26 9 3 1 3.</_></rects>
      <tilted>0</tilted></_>
    <_>
      <rects>
        <_>
          24 4 2 2 -1.</_>
        <_>
          25 4 1 2 2.</_></rects>
      <tilted>0</tilted></_>
    <_>
      <rects>
        <_>
          24 4 3 3 -1.</_>
        <_>
          25 4 1 3 3.</_></rects>
      <tilted>0</tilted></_>
    <_>
      <rects>
        <_>
          25 0 3 2 -1.</_>
        <_>
          26 0 1 2 3.</_></rects>
      <tilted>0</tilted></_>
    <_>
      <rects>
        <_>
          25 3 6 5 -1.</_>
        <_>
          27 3 2 5 3.</_></rects>
      <tilted>0</tilted></_>
    <_>
      <rects>
        <_>
          25 4 3 3 -1.</_>
        <_>
          26 4 1 3 3.</_></rects>
      <tilted>0</tilted></_>
    <_>
      <rects>
        <_>
          25 5 3 2 -1.</_>
        <_>
          26 5 1 2 3.</_></rects>
      <tilted>0</tilted></_>
    <_>
      <rects>
        <_>
          25 8 3 2 -1.</_>
        <_>
          26 8 1 2 3.</_></rects>
      <tilted>0</tilted></_>
    <_>
      <rects>
        <_>
          25 9 3 1 -1.</_>
        <_>
          26 9 1 1 3.</_></rects>
      <tilted>0</tilted></_>
    <_>
      <rects>
        <_>
          26 5 3 1 -1.</_>
        <_>
          27 5 1 1 3.</_></rects>
      <tilted>0</tilted></_>
    <_>
      <rects>
        <_>
          26 5 3 2 -1.</_>
        <_>
          27 5 1 2 3.</_></rects>
      <tilted>0</tilted></_>
    <_>
      <rects>
        <_>
          26 8 1 2 -1.</_>
        <_>
          26 9 1 1 2.</_></rects>
      <tilted>0</tilted></_>
    <_>
      <rects>
        <_>
          27 4 2 2 -1.</_>
        <_>
          28 4 1 2 2.</_></rects>
      <tilted>0</tilted></_>
    <_>
      <rects>
        <_>
          27 4 3 2 -1.</_>
        <_>
          28 4 1 2 3.</_></rects>
      <tilted>0</tilted></_>
    <_>
      <rects>
        <_>
          27 4 3 3 -1.</_>
        <_>
          28 4 1 3 3.</_></rects>
      <tilted>0</tilted></_>
    <_>
      <rects>
        <_>
          27 5 3 1 -1.</_>
        <_>
          28 5 1 1 3.</_></rects>
      <tilted>0</tilted></_>
    <_>
      <rects>
        <_>
          27 7 6 3 -1.</_>
        <_>
          27 8 6 1 3.</_></rects>
      <tilted>0</tilted></_>
    <_>
      <rects>
        <_>
          28 4 3 2 -1.</_>
        <_>
          29 4 1 2 3.</_></rects>
      <tilted>0</tilted></_>
    <_>
      <rects>
        <_>
          29 0 9 10 -1.</_>
        <_>
          32 0 3 10 3.</_></rects>
      <tilted>0</tilted></_>
    <_>
      <rects>
        <_>
          29 3 2 2 -1.</_>
        <_>
          29 3 1 1 2.</_>
        <_>
          30 4 1 1 2.</_></rects>
      <tilted>0</tilted></_>
    <_>
      <rects>
        <_>
          29 3 3 3 -1.</_>
        <_>
          30 3 1 3 3.</_></rects>
      <tilted>0</tilted></_>
    <_>
      <rects>
        <_>
          29 7 13 3 -1.</_>
        <_>
          29 8 13 1 3.</_></rects>
      <tilted>0</tilted></_>
    <_>
      <rects>
        <_>
          30 1 10 2 -1.</_>
        <_>
          35 1 5 2 2.</_></rects>
      <tilted>0</tilted></_>
    <_>
      <rects>
        <_>
          30 1 6 3 -1.</_>
        <_>
          30 2 6 1 3.</_></rects>
      <tilted>0</tilted></_>
    <_>
      <rects>
        <_>
          30 2 8 3 -1.</_>
        <_>
          34 2 4 3 2.</_></rects>
      <tilted>0</tilted></_>
    <_>
      <rects>
        <_>
          31 5 2 2 -1.</_>
        <_>
          31 5 1 1 2.</_>
        <_>
          32 6 1 1 2.</_></rects>
      <tilted>0</tilted></_>
    <_>
      <rects>
        <_>
          32 0 6 1 -1.</_>
        <_>
          34 0 2 1 3.</_></rects>
      <tilted>0</tilted></_>
    <_>
      <rects>
        <_>
          32 4 2 2 -1.</_>
        <_>
          32 4 1 1 2.</_>
        <_>
          33 5 1 1 2.</_></rects>
      <tilted>0</tilted></_>
    <_>
      <rects>
        <_>
          33 1 12 1 -1.</_>
        <_>
          37 1 4 1 3.</_></rects>
      <tilted>0</tilted></_>
    <_>
      <rects>
        <_>
          33 1 6 4 -1.</_>
        <_>
          33 3 6 2 2.</_></rects>
      <tilted>0</tilted></_>
    <_>
      <rects>
        <_>
          33 3 2 2 -1.</_>
        <_>
          33 3 1 1 2.</_>
        <_>
          34 4 1 1 2.</_></rects>
      <tilted>0</tilted></_>
    <_>
      <rects>
        <_>
          33 4 2 2 -1.</_>
        <_>
          33 4 1 1 2.</_>
        <_>
          34 5 1 1 2.</_></rects>
      <tilted>0</tilted></_>
    <_>
      <rects>
        <_>
          33 5 3 1 -1.</_>
        <_>
          34 5 1 1 3.</_></rects>
      <tilted>0</tilted></_>
    <_>
      <rects>
        <_>
          33 6 3 1 -1.</_>
        <_>
          34 6 1 1 3.</_></rects>
      <tilted>0</tilted></_>
    <_>
      <rects>
        <_>
          33 7 4 3 -1.</_>
        <_>
          33 8 4 1 3.</_></rects>
      <tilted>0</tilted></_>
    <_>
      <rects>
        <_>
          33 9 6 1 -1.</_>
        <_>
          35 9 2 1 3.</_></rects>
      <tilted>0</tilted></_>
    <_>
      <rects>
        <_>
          34 0 6 1 -1.</_>
        <_>
          36 0 2 1 3.</_></rects>
      <tilted>0</tilted></_>
    <_>
      <rects>
        <_>
          34 5 3 1 -1.</_>
        <_>
          35 5 1 1 3.</_></rects>
      <tilted>0</tilted></_>
    <_>
      <rects>
        <_>
          34 6 2 2 -1.</_>
        <_>
          34 6 1 1 2.</_>
        <_>
          35 7 1 1 2.</_></rects>
      <tilted>0</tilted></_>
    <_>
      <rects>
        <_>
          35 0 1 2 -1.</_>
        <_>
          35 1 1 1 2.</_></rects>
      <tilted>0</tilted></_>
    <_>
      <rects>
        <_>
          35 0 9 2 -1.</_>
        <_>
          35 1 9 1 2.</_></rects>
      <tilted>0</tilted></_>
    <_>
      <rects>
        <_>
          35 5 2 2 -1.</_>
        <_>
          35 5 1 1 2.</_>
        <_>
          36 6 1 1 2.</_></rects>
      <tilted>0</tilted></_>
    <_>
      <rects>
        <_>
          35 6 2 2 -1.</_>
        <_>
          35 6 1 1 2.</_>
        <_>
          36 7 1 1 2.</_></rects>
      <tilted>0</tilted></_>
    <_>
      <rects>
        <_>
          36 5 2 4 -1.</_>
        <_>
          36 7 2 2 2.</_></rects>
      <tilted>0</tilted></_>
    <_>
      <rects>
        <_>
          37 5 2 1 -1.</_>
        <_>
          38 5 1 1 2.</_></rects>
      <tilted>0</tilted></_>
    <_>
      <rects>
        <_>
          37 5 3 1 -1.</_>
        <_>
          38 5 1 1 3.</_></rects>
      <tilted>0</tilted></_>
    <_>
      <rects>
        <_>
          37 6 8 4 -1.</_>
        <_>
          37 6 4 2 2.</_>
        <_>
          41 8 4 2 2.</_></rects>
      <tilted>0</tilted></_>
    <_>
      <rects>
        <_>
          38 5 3 1 -1.</_>
        <_>
          39 5 1 1 3.</_></rects>
      <tilted>0</tilted></_>
    <_>
      <rects>
        <_>
          39 1 6 5 -1.</_>
        <_>
          42 1 3 5 2.</_></rects>
      <tilted>0</tilted></_>
    <_>
      <rects>
        <_>
          41 1 4 2 -1.</_>
        <_>
          43 1 2 2 2.</_></rects>
      <tilted>0</tilted></_>
    <_>
      <rects>
        <_>
          41 1 4 8 -1.</_>
        <_>
          43 1 2 8 2.</_></rects>
      <tilted>0</tilted></_>
    <_>
      <rects>
        <_>
          41 8 4 1 -1.</_>
        <_>
          43 8 2 1 2.</_></rects>
      <tilted>0</tilted></_>
    <_>
      <rects>
        <_>
          42 1 3 2 -1.</_>
        <_>
          43 1 1 2 3.</_></rects>
      <tilted>0</tilted></_>
    <_>
      <rects>
        <_>
          42 2 3 5 -1.</_>
        <_>
          43 2 1 5 3.</_></rects>
      <tilted>0</tilted></_>
    <_>
      <rects>
        <_>
          42 5 3 2 -1.</_>
        <_>
          42 6 3 1 2.</_></rects>
      <tilted>0</tilted></_>
    <_>
      <rects>
        <_>
          43 3 2 6 -1.</_>
        <_>
          44 3 1 6 2.</_></rects>
      <tilted>0</tilted></_>
    <_>
      <rects>
        <_>
          43 4 2 3 -1.</_>
        <_>
          43 5 2 1 3.</_></rects>
      <tilted>0</tilted></_>
    <_>
      <rects>
        <_>
          43 7 2 2 -1.</_>
        <_>
          43 8 2 1 2.</_></rects>
      <tilted>0</tilted></_>
    <_>
      <rects>
        <_>
          44 1 1 6 -1.</_>
        <_>
          44 3 1 2 3.</_></rects>
      <tilted>0</tilted></_>
    <_>
      <rects>
        <_>
          44 2 1 3 -1.</_>
        <_>
          44 3 1 1 3.</_></rects>
      <tilted>0</tilted></_>
    <_>
      <rects>
        <_>
          44 2 1 6 -1.</_>
        <_>
          44 4 1 2 3.</_></rects>
      <tilted>0</tilted></_>
    <_>
      <rects>
        <_>
          44 4 1 3 -1.</_>
        <_>
          44 5 1 1 3.</_></rects>
      <tilted>0</tilted></_></features></cascade>
</opencv_storage>
